digraph Tree {
node [shape=box, style="filled", color="black", fontname="helvetica"] ;
edge [fontname="helvetica"] ;
0 [label="petal width (cm) <= 0.8\nentropy = 1.581\nsamples = 120\nvalue = [42, 36, 42]\nclass = setosa", fillcolor="#ffffff"] ;
1 [label="entropy = 0.0\nsamples = 42\nvalue = [42, 0, 0]\nclass = setosa", fillcolor="#e58139"] ;
0 -> 1 [labeldistance=2.5, labelangle=45, headlabel="True"] ;
2 [label="petal width (cm) <= 1.75\nentropy = 0.996\nsamples = 78\nvalue = [0, 36, 42]\nclass = virginica", fillcolor="#ede3fb"] ;
0 -> 2 [labeldistance=2.5, labelangle=-45, headlabel="False"] ;
3 [label="petal length (cm) <= 4.95\nentropy = 0.544\nsamples = 40\nvalue = [0, 35, 5]\nclass = versicolor", fillcolor="#55e993"] ;
2 -> 3 ;
4 [label="petal width (cm) <= 1.65\nentropy = 0.191\nsamples = 34\nvalue = [0, 33, 1]\nclass = versicolor", fillcolor="#3fe685"] ;
3 -> 4 ;
5 [label="entropy = 0.0\nsamples = 33\nvalue = [0, 33, 0]\nclass = versicolor", fillcolor="#39e581"] ;
4 -> 5 ;
6 [label="entropy = 0.0\nsamples = 1\nvalue = [0, 0, 1]\nclass = virginica", fillcolor="#8139e5"] ;
4 -> 6 ;
7 [label="petal width (cm) <= 1.55\nentropy = 0.918\nsamples = 6\nvalue = [0, 2, 4]\nclass = virginica", fillcolor="#c09cf2"] ;
3 -> 7 ;
8 [label="entropy = 0.0\nsamples = 3\nvalue = [0, 0, 3]\nclass = virginica", fillcolor="#8139e5"] ;
7 -> 8 ;
9 [label="sepal length (cm) <= 6.95\nentropy = 0.918\nsamples = 3\nvalue = [0, 2, 1]\nclass = versicolor", fillcolor="#9cf2c0"] ;
7 -> 9 ;
10 [label="entropy = 0.0\nsamples = 2\nvalue = [0, 2, 0]\nclass = versicolor", fillcolor="#39e581"] ;
9 -> 10 ;
11 [label="entropy = 0.0\nsamples = 1\nvalue = [0, 0, 1]\nclass = virginica", fillcolor="#8139e5"] ;
9 -> 11 ;
12 [label="petal length (cm) <= 4.85\nentropy = 0.176\nsamples = 38\nvalue = [0, 1, 37]\nclass = virginica", fillcolor="#843ee6"] ;
2 -> 12 ;
13 [label="sepal width (cm) <= 3.0\nentropy = 1.0\nsamples = 2\nvalue = [0, 1, 1]\nclass = versicolor", fillcolor="#ffffff"] ;
12 -> 13 ;
14 [label="entropy = 0.0\nsamples = 1\nvalue = [0, 0, 1]\nclass = virginica", fillcolor="#8139e5"] ;
13 -> 14 ;
15 [label="entropy = 0.0\nsamples = 1\nvalue = [0, 1, 0]\nclass = versicolor", fillcolor="#39e581"] ;
13 -> 15 ;
16 [label="entropy = 0.0\nsamples = 36\nvalue = [0, 0, 36]\nclass = virginica", fillcolor="#8139e5"] ;
12 -> 16 ;
}